<?xml version="1.0"?>
<opencv_storage>
<cascade>
  <stageType>BOOST</stageType>
  <featureType>HAAR</featureType>
  <height>24</height>
  <width>24</width>
  <stageParams>
    <boostType>GAB</boostType>
    <minHitRate>9.9500000476837158e-01</minHitRate>
    <maxFalseAlarm>5.0000000000000000e-01</maxFalseAlarm>
    <weightTrimRate>9.4999998807907104e-01</weightTrimRate>
    <maxDepth>1</maxDepth>
    <maxWeakCount>100</maxWeakCount></stageParams>
  <featureParams>
    <maxCatCount>0</maxCatCount>
    <featSize>1</featSize>
    <mode>BASIC</mode></featureParams>
  <stageNum>10</stageNum>
  <stages>
    <!-- stage 0 -->
    <_>
      <maxWeakCount>3</maxWeakCount>
      <stageThreshold>-1.4590555429458618e+00</stageThreshold>
      <weakClassifiers>
        <_>
          <internalNodes>
            0 -1 15 -1.0288469493389130e-01</internalNodes>
          <leafValues>
            4.5454546809196472e-01 -9.0733593702316284e-01</leafValues></_>
        <_>
          <internalNodes>
            0 -1 2 6.8539664149284363e-02</internalNodes>
          <leafValues>
            -8.8639652729034424e-01 1.4860630035400391e-01</leafValues></_>
        <_>
          <internalNodes>
            0 -1 11 5.8930799365043640e-02</internalNodes>
          <leafValues>
            -7.0032590627670288e-01 4.5363104343414307e-01</leafValues></_></weakClassifiers></_>
    <!-- stage 1 -->
    <_>
      <maxWeakCount>4</maxWeakCount>
      <stageThreshold>-1.9187533855438232e+00</stageThreshold>
      <weakClassifiers>
        <_>
          <internalNodes>
            0 -1 26 -2.0109087228775024e-02</internalNodes>
          <leafValues>
            -1.7187500000000000e-01 -9.4327729940414429e-01</leafValues></_>
        <_>
          <internalNodes>
            0 -1 29 9.2445388436317444e-03</internalNodes>
          <leafValues>
            -7.4396127462387085e-01 3.7560814619064331e-01</leafValues></_>
        <_>
          <internalNodes>
            0 -1 5 3.8753005210310221e-03</internalNodes>
          <leafValues>
            -6.6092085838317871e-01 4.0187031030654907e-01</leafValues></_>
        <_>
          <internalNodes>
            0 -1 38 1.8988973461091518e-03</internalNodes>
          <leafValues>
            -6.0005122423171997e-01 4.2940601706504822e-01</leafValues></_></weakClassifiers></_>
    <!-- stage 2 -->
    <_>
      <maxWeakCount>5</maxWeakCount>
      <stageThreshold>-1.7220071554183960e+00</stageThreshold>
      <weakClassifiers>
        <_>
          <internalNodes>
            0 -1 51 -3.4821599721908569e-02</internalNodes>
          <leafValues>
            1.9148936867713928e-01 -8.9932239055633545e-01</leafValues></_>
        <_>
          <internalNodes>
            0 -1 25 -2.4915374815464020e-02</internalNodes>
          <leafValues>
            3.3720856904983521e-01 -7.2296565771102905e-01</leafValues></_>
        <_>
          <internalNodes>
            0 -1 21 2.9634824022650719e-02</internalNodes>
          <leafValues>
            -9.0324807167053223e-01 1.2488343566656113e-01</leafValues></_>
        <_>
          <internalNodes>
            0 -1 33 -7.5639458373188972e-03</internalNodes>
          <leafValues>
            2.8673061728477478e-01 -6.4596635103225708e-01</leafValues></_>
        <_>
          <internalNodes>
            0 -1 24 -4.7331722453236580e-03</internalNodes>
          <leafValues>
            4.2136374115943909e-01 -4.5650127530097961e-01</leafValues></_></weakClassifiers></_>
    <!-- stage 3 -->
    <_>
      <maxWeakCount>7</maxWeakCount>
      <stageThreshold>-1.7657374143600464e+00</stageThreshold>
      <weakClassifiers>
        <_>
          <internalNodes>
            0 -1 49 -1.1440112441778183e-01</internalNodes>
          <leafValues>
            -2.3711340129375458e-01 -9.1251271963119507e-01</leafValues></_>
        <_>
          <internalNodes>
            0 -1 30 5.4101110436022282e-03</internalNodes>
          <leafValues>
            -7.3094666004180908e-01 1.1871623992919922e-01</leafValues></_>
        <_>
          <internalNodes>
            0 -1 13 -1.4926739037036896e-02</internalNodes>
          <leafValues>
            1.4907792210578918e-01 -7.6702010631561279e-01</leafValues></_>
        <_>
          <internalNodes>
            0 -1 14 2.6907725259661674e-03</internalNodes>
          <leafValues>
            -3.7443313002586365e-01 5.0648933649063110e-01</leafValues></_>
        <_>
          <internalNodes>
            0 -1 8 -2.6937676593661308e-03</internalNodes>
          <leafValues>
            -1. 2.0553368330001831e-01</leafValues></_>
        <_>
          <internalNodes>
            0 -1 41 -6.0348808765411377e-03</internalNodes>
          <leafValues>
            5.0098347663879395e-01 -3.9025747776031494e-01</leafValues></_>
        <_>
          <internalNodes>
            0 -1 28 1.5354298520833254e-03</internalNodes>
          <leafValues>
            -5.4767614603042603e-01 3.2297652959823608e-01</leafValues></_></weakClassifiers></_>
    <!-- stage 4 -->
    <_>
      <maxWeakCount>7</maxWeakCount>
      <stageThreshold>-1.9765622615814209e+00</stageThreshold>
      <weakClassifiers>
        <_>
          <internalNodes>
            0 -1 16 6.4219489693641663e-02</internalNodes>
          <leafValues>
            -9.2051559686660767e-01 -4.2281877994537354e-01</leafValues></_>
        <_>
          <internalNodes>
            0 -1 43 -6.9331601262092590e-02</internalNodes>
          <leafValues>
            1.5209430456161499e-01 -6.8974643945693970e-01</leafValues></_>
        <_>
          <internalNodes>
            0 -1 18 2.4833880364894867e-02</internalNodes>
          <leafValues>
            -5.2673375606536865e-01 2.6140028238296509e-01</leafValues></_>
        <_>
          <internalNodes>
            0 -1 9 1.5066834166646004e-03</internalNodes>
          <leafValues>
            1.9206345081329346e-01 -6.8497890233993530e-01</leafValues></_>
        <_>
          <internalNodes>
            0 -1 10 -1.0202301666140556e-02</internalNodes>
          <leafValues>
            3.5384094715118408e-01 -4.2842224240303040e-01</leafValues></_>
        <_>
          <internalNodes>
            0 -1 1 1.0706056840717793e-02</internalNodes>
          <leafValues>
            -3.8554084300994873e-01 4.4624882936477661e-01</leafValues></_>
        <_>
          <internalNodes>
            0 -1 45 4.4652617361862212e-05</internalNodes>
          <leafValues>
            -5.1195162534713745e-01 3.0654403567314148e-01</leafValues></_></weakClassifiers></_>
    <!-- stage 5 -->
    <_>
      <maxWeakCount>6</maxWeakCount>
      <stageThreshold>-1.6759214401245117e+00</stageThreshold>
      <weakClassifiers>
        <_>
          <internalNodes>
            0 -1 17 1.0655766725540161e-01</internalNodes>
          <leafValues>
            -9.0190190076828003e-01 -2.3456789553165436e-01</leafValues></_>
        <_>
          <internalNodes>
            0 -1 54 -3.3840253949165344e-02</internalNodes>
          <leafValues>
            2.9091969132423401e-01 -6.1402791738510132e-01</leafValues></_>
        <_>
          <internalNodes>
            0 -1 52 2.1319955121725798e-03</internalNodes>
          <leafValues>
            9.0246967971324921e-02 -9.0918356180191040e-01</leafValues></_>
        <_>
          <internalNodes>
            0 -1 50 2.6294915005564690e-03</internalNodes>
          <leafValues>
            -7.3623150587081909e-01 1.6534879803657532e-01</leafValues></_>
        <_>
          <internalNodes>
            0 -1 42 -1.9465573132038116e-03</internalNodes>
          <leafValues>
            -6.3465726375579834e-01 2.1978525817394257e-01</leafValues></_>
        <_>
          <internalNodes>
            0 -1 47 -1.2370049080345780e-04</internalNodes>
          <leafValues>
            -5.9351462125778198e-01 2.6620772480964661e-01</leafValues></_></weakClassifiers></_>
    <!-- stage 6 -->
    <_>
      <maxWeakCount>7</maxWeakCount>
      <stageThreshold>-1.5623331069946289e+00</stageThreshold>
      <weakClassifiers>
        <_>
          <internalNodes>
            0 -1 20 -7.6685175299644470e-02</internalNodes>
          <leafValues>
            -6.3829787075519562e-02 -8.8770568370819092e-01</leafValues></_>
        <_>
          <internalNodes>
            0 -1 31 1.8629070371389389e-02</internalNodes>
          <leafValues>
            -6.8139135837554932e-01 9.7383476793766022e-02</leafValues></_>
        <_>
          <internalNodes>
            0 -1 53 -3.3383961999788880e-04</internalNodes>
          <leafValues>
            -7.2233486175537109e-01 1.2903831899166107e-01</leafValues></_>
        <_>
          <internalNodes>
            0 -1 0 3.7289641797542572e-02</internalNodes>
          <leafValues>
            -2.2584104537963867e-01 6.5943259000778198e-01</leafValues></_>
        <_>
          <internalNodes>
            0 -1 4 -7.1358378045260906e-04</internalNodes>
          <leafValues>
            -6.5925985574722290e-01 2.2836227715015411e-01</leafValues></_>
        <_>
          <internalNodes>
            0 -1 56 2.4182405322790146e-03</internalNodes>
          <leafValues>
            1.8441852927207947e-01 -7.6169419288635254e-01</leafValues></_>
        <_>
          <internalNodes>
            0 -1 23 5.6668996810913086e-02</internalNodes>
          <leafValues>
            -2.3426729440689087e-01 6.6437357664108276e-01</leafValues></_></weakClassifiers></_>
    <!-- stage 7 -->
    <_>
      <maxWeakCount>7</maxWeakCount>
      <stageThreshold>-1.9506661891937256e+00</stageThreshold>
      <weakClassifiers>
        <_>
          <internalNodes>
            0 -1 6 9.6215918660163879e-02</internalNodes>
          <leafValues>
            -8.9605391025543213e-01 2.6829269528388977e-01</leafValues></_>
        <_>
          <internalNodes>
            0 -1 3 7.9264270607382059e-04</internalNodes>
          <leafValues>
            -1.7309023439884186e-01 -8.6860948801040649e-01</leafValues></_>
        <_>
          <internalNodes>
            0 -1 27 2.9389653354883194e-02</internalNodes>
          <leafValues>
            -4.1438058018684387e-01 3.9724391698837280e-01</leafValues></_>
        <_>
          <internalNodes>
            0 -1 55 1.0490425629541278e-03</internalNodes>
          <leafValues>
            1.9427160918712616e-01 -7.6685178279876709e-01</leafValues></_>
        <_>
          <internalNodes>
            0 -1 55 -7.3813449125736952e-04</internalNodes>
          <leafValues>
            -7.4991017580032349e-01 2.1014451980590820e-01</leafValues></_>
        <_>
          <internalNodes>
            0 -1 37 -5.4675368592143059e-03</internalNodes>
          <leafValues>
            -9.0847951173782349e-01 1.4177076518535614e-01</leafValues></_>
        <_>
          <internalNodes>
            0 -1 40 -5.3982533514499664e-02</internalNodes>
          <leafValues>
            5.5030769109725952e-01 -3.1780907511711121e-01</leafValues></_></weakClassifiers></_>
    <!-- stage 8 -->
    <_>
      <maxWeakCount>5</maxWeakCount>
      <stageThreshold>-1.5960975885391235e+00</stageThreshold>
      <weakClassifiers>
        <_>
          <internalNodes>
            0 -1 39 5.4161315783858299e-03</internalNodes>
          <leafValues>
            -8.9678674936294556e-01 1.8867924809455872e-02</leafValues></_>
        <_>
          <internalNodes>
            0 -1 19 -7.4149817228317261e-02</internalNodes>
          <leafValues>
            2.6891350746154785e-01 -6.6793912649154663e-01</leafValues></_>
        <_>
          <internalNodes>
            0 -1 44 2.2962987422943115e-03</internalNodes>
          <leafValues>
            -3.1688684225082397e-01 6.3054835796356201e-01</leafValues></_>
        <_>
          <internalNodes>
            0 -1 7 3.1684641726315022e-04</internalNodes>
          <leafValues>
            -6.0264009237289429e-01 2.4161706864833832e-01</leafValues></_>
        <_>
          <internalNodes>
            0 -1 48 6.4393214415758848e-04</internalNodes>
          <leafValues>
            1.3640055060386658e-01 -9.0353709459304810e-01</leafValues></_></weakClassifiers></_>
    <!-- stage 9 -->
    <_>
      <maxWeakCount>7</maxWeakCount>
      <stageThreshold>-1.7017461061477661e+00</stageThreshold>
      <weakClassifiers>
        <_>
          <internalNodes>
            0 -1 34 -1.4456750825047493e-02</internalNodes>
          <leafValues>
            1. -8.6915886402130127e-01</leafValues></_>
        <_>
          <internalNodes>
            0 -1 32 7.2843572124838829e-03</internalNodes>
          <leafValues>
            -5.7131034135818481e-01 5.3804486989974976e-01</leafValues></_>
        <_>
          <internalNodes>
            0 -1 36 -6.4084790647029877e-03</internalNodes>
          <leafValues>
            3.2222110033035278e-01 -5.0594776868820190e-01</leafValues></_>
        <_>
          <internalNodes>
            0 -1 22 1.4089515432715416e-02</internalNodes>
          <leafValues>
            -3.4752580523490906e-01 4.9257031083106995e-01</leafValues></_>
        <_>
          <internalNodes>
            0 -1 46 -2.7244444936513901e-03</internalNodes>
          <leafValues>
            3.5741841793060303e-01 -4.6015059947967529e-01</leafValues></_>
        <_>
          <internalNodes>
            0 -1 12 3.3152970718219876e-04</internalNodes>
          <leafValues>
            -3.2353159785270691e-01 4.7483077645301819e-01</leafValues></_>
        <_>
          <internalNodes>
            0 -1 35 1.1475103674456477e-03</internalNodes>
          <leafValues>
            -2.4005249142646790e-01 6.4081883430480957e-01</leafValues></_></weakClassifiers></_></stages>
  <features>
    <_>
      <rects>
        <_>
          0 1 24 1 -1.</_>
        <_>
          8 1 8 1 3.</_></rects>
      <tilted>0</tilted></_>
    <_>
      <rects>
        <_>
          0 3 20 6 -1.</_>
        <_>
          0 5 20 2 3.</_></rects>
      <tilted>0</tilted></_>
    <_>
      <rects>
        <_>
          0 7 24 12 -1.</_>
        <_>
          0 11 24 4 3.</_></rects>
      <tilted>0</tilted></_>
    <_>
      <rects>
        <_>
          0 8 2 3 -1.</_>
        <_>
          0 9 2 1 3.</_></rects>
      <tilted>0</tilted></_>
    <_>
      <rects>
        <_>
          0 8 3 3 -1.</_>
        <_>
          0 9 3 1 3.</_></rects>
      <tilted>0</tilted></_>
    <_>
      <rects>
        <_>
          0 8 10 4 -1.</_>
        <_>
          0 8 5 2 2.</_>
        <_>
          5 10 5 2 2.</_></rects>
      <tilted>0</tilted></_>
    <_>
      <rects>
        <_>
          1 1 6 23 -1.</_>
        <_>
          4 1 3 23 2.</_></rects>
      <tilted>0</tilted></_>
    <_>
      <rects>
        <_>
          1 10 5 9 -1.</_>
        <_>
          1 13 5 3 3.</_></rects>
      <tilted>0</tilted></_>
    <_>
      <rects>
        <_>
          1 15 4 3 -1.</_>
        <_>
          1 16 4 1 3.</_></rects>
      <tilted>0</tilted></_>
    <_>
      <rects>
        <_>
          1 15 5 3 -1.</_>
        <_>
          1 16 5 1 3.</_></rects>
      <tilted>0</tilted></_>
    <_>
      <rects>
        <_>
          1 16 16 6 -1.</_>
        <_>
          1 18 16 2 3.</_></rects>
      <tilted>0</tilted></_>
    <_>
      <rects>
        <_>
          2 2 18 9 -1.</_>
        <_>
          8 2 6 9 3.</_></rects>
      <tilted>0</tilted></_>
    <_>
      <rects>
        <_>
          2 9 3 1 -1.</_>
        <_>
          3 9 1 1 3.</_></rects>
      <tilted>0</tilted></_>
    <_>
      <rects>
        <_>
          2 12 16 8 -1.</_>
        <_>
          2 16 16 4 2.</_></rects>
      <tilted>0</tilted></_>
    <_>
      <rects>
        <_>
          3 4 6 1 -1.</_>
        <_>
          6 4 3 1 2.</_></rects>
      <tilted>0</tilted></_>
    <_>
      <rects>
        <_>
          4 4 13 9 -1.</_>
        <_>
          4 7 13 3 3.</_></rects>
      <tilted>0</tilted></_>
    <_>
      <rects>
        <_>
          5 0 11 9 -1.</_>
        <_>
          5 3 11 3 3.</_></rects>
      <tilted>0</tilted></_>
    <_>
      <rects>
        <_>
          5 0 16 9 -1.</_>
        <_>
          5 3 16 3 3.</_></rects>
      <tilted>0</tilted></_>
    <_>
      <rects>
        <_>
          5 5 6 12 -1.</_>
        <_>
          5 11 6 6 2.</_></rects>
      <tilted>0</tilted></_>
    <_>
      <rects>
        <_>
          5 5 13 9 -1.</_>
        <_>
          5 8 13 3 3.</_></rects>
      <tilted>0</tilted></_>
    <_>
      <rects>
        <_>
          6 4 12 6 -1.</_>
        <_>
          6 7 12 3 2.</_></rects>
      <tilted>0</tilted></_>
    <_>
      <rects>
        <_>
          6 5 14 15 -1.</_>
        <_>
          6 10 14 5 3.</_></rects>
      <tilted>0</tilted></_>
    <_>
      <rects>
        <_>
          6 9 6 6 -1.</_>
        <_>
          6 11 6 2 3.</_></rects>
      <tilted>0</tilted></_>
    <_>
      <rects>
        <_>
          7 0 13 6 -1.</_>
        <_>
          7 3 13 3 2.</_></rects>
      <tilted>0</tilted></_>
    <_>
      <rects>
        <_>
          7 4 4 12 -1.</_>
        <_>
          7 4 2 6 2.</_>
        <_>
          9 10 2 6 2.</_></rects>
      <tilted>0</tilted></_>
    <_>
      <rects>
        <_>
          7 5 6 14 -1.</_>
        <_>
          7 5 3 7 2.</_>
        <_>
          10 12 3 7 2.</_></rects>
      <tilted>0</tilted></_>
    <_>
      <rects>
        <_>
          7 6 6 12 -1.</_>
        <_>
          7 6 3 6 2.</_>
        <_>
          10 12 3 6 2.</_></rects>
      <tilted>0</tilted></_>
    <_>
      <rects>
        <_>
          7 7 9 4 -1.</_>
        <_>
          10 7 3 4 3.</_></rects>
      <tilted>0</tilted></_>
    <_>
      <rects>
        <_>
          8 3 6 4 -1.</_>
        <_>
          10 3 2 4 3.</_></rects>
      <tilted>0</tilted></_>
    <_>
      <rects>
        <_>
          9 1 4 10 -1.</_>
        <_>
          9 1 2 5 2.</_>
        <_>
          11 6 2 5 2.</_></rects>
      <tilted>0</tilted></_>
    <_>
      <rects>
        <_>
          9 7 4 3 -1.</_>
        <_>
          11 7 2 3 2.</_></rects>
      <tilted>0</tilted></_>
    <_>
      <rects>
        <_>
          9 7 6 10 -1.</_>
        <_>
          11 7 2 10 3.</_></rects>
      <tilted>0</tilted></_>
    <_>
      <rects>
        <_>
          9 17 7 3 -1.</_>
        <_>
          9 18 7 1 3.</_></rects>
      <tilted>0</tilted></_>
    <_>
      <rects>
        <_>
          10 0 8 11 -1.</_>
        <_>
          14 0 4 11 2.</_></rects>
      <tilted>0</tilted></_>
    <_>
      <rects>
        <_>
          10 17 3 3 -1.</_>
        <_>
          10 18 3 1 3.</_></rects>
      <tilted>0</tilted></_>
    <_>
      <rects>
        <_>
          10 19 1 3 -1.</_>
        <_>
          10 20 1 1 3.</_></rects>
      <tilted>0</tilted></_>
    <_>
      <rects>
        <_>
          11 6 9 4 -1.</_>
        <_>
          14 6 3 4 3.</_></rects>
      <tilted>0</tilted></_>
    <_>
      <rects>
        <_>
          11 7 1 8 -1.</_>
        <_>
          11 11 1 4 2.</_></rects>
      <tilted>0</tilted></_>
    <_>
      <rects>
        <_>
          11 8 6 6 -1.</_>
        <_>
          11 8 3 3 2.</_>
        <_>
          14 11 3 3 2.</_></rects>
      <tilted>0</tilted></_>
    <_>
      <rects>
        <_>
          11 16 3 3 -1.</_>
        <_>
          11 17 3 1 3.</_></rects>
      <tilted>0</tilted></_>
    <_>
      <rects>
        <_>
          13 1 10 6 -1.</_>
        <_>
          18 1 5 6 2.</_></rects>
      <tilted>0</tilted></_>
    <_>
      <rects>
        <_>
          13 18 8 4 -1.</_>
        <_>
          13 18 4 2 2.</_>
        <_>
          17 20 4 2 2.</_></rects>
      <tilted>0</tilted></_>
    <_>
      <rects>
        <_>
          15 1 4 6 -1.</_>
        <_>
          15 3 4 2 3.</_></rects>
      <tilted>0</tilted></_>
    <_>
      <rects>
        <_>
          15 1 8 20 -1.</_>
        <_>
          19 1 4 20 2.</_></rects>
      <tilted>0</tilted></_>
    <_>
      <rects>
        <_>
          15 7 2 3 -1.</_>
        <_>
          15 8 2 1 3.</_></rects>
      <tilted>0</tilted></_>
    <_>
      <rects>
        <_>
          15 11 2 4 -1.</_>
        <_>
          15 11 1 2 2.</_>
        <_>
          16 13 1 2 2.</_></rects>
      <tilted>0</tilted></_>
    <_>
      <rects>
        <_>
          15 13 9 4 -1.</_>
        <_>
          15 15 9 2 2.</_></rects>
      <tilted>0</tilted></_>
    <_>
      <rects>
        <_>
          16 0 1 3 -1.</_>
        <_>
          16 1 1 1 3.</_></rects>
      <tilted>0</tilted></_>
    <_>
      <rects>
        <_>
          16 3 2 2 -1.</_>
        <_>
          17 3 1 2 2.</_></rects>
      <tilted>0</tilted></_>
    <_>
      <rects>
        <_>
          16 3 8 18 -1.</_>
        <_>
          20 3 4 18 2.</_></rects>
      <tilted>0</tilted></_>
    <_>
      <rects>
        <_>
          17 6 1 15 -1.</_>
        <_>
          17 11 1 5 3.</_></rects>
      <tilted>0</tilted></_>
    <_>
      <rects>
        <_>
          17 13 6 5 -1.</_>
        <_>
          20 13 3 5 2.</_></rects>
      <tilted>0</tilted></_>
    <_>
      <rects>
        <_>
          17 13 4 3 -1.</_>
        <_>
          17 14 4 1 3.</_></rects>
      <tilted>0</tilted></_>
    <_>
      <rects>
        <_>
          18 13 1 3 -1.</_>
        <_>
          18 14 1 1 3.</_></rects>
      <tilted>0</tilted></_>
    <_>
      <rects>
        <_>
          19 4 4 15 -1.</_>
        <_>
          21 4 2 15 2.</_></rects>
      <tilted>0</tilted></_>
    <_>
      <rects>
        <_>
          19 12 2 3 -1.</_>
        <_>
          19 13 2 1 3.</_></rects>
      <tilted>0</tilted></_>
    <_>
      <rects>
        <_>
          21 1 3 4 -1.</_>
        <_>
          21 3 3 2 2.</_></rects>
      <tilted>0</tilted></_></features></cascade>
</opencv_storage>
